digraph Tree {
node [shape=box, style="filled, rounded", color="black", fontname=helvetica] ;
edge [fontname=helvetica] ;
0 [label="PC1 <= -0.03\ngini = 0.47\nsamples = 295\nvalue = [286, 169]\nclass = Benign", fillcolor="#f4cbae"] ;
1 [label="PC4 <= -0.91\ngini = 0.07\nsamples = 178\nvalue = [268, 10]\nclass = Benign", fillcolor="#e68640"] ;
0 -> 1 [labeldistance=2.5, labelangle=45, headlabel="True"] ;
2 [label="PC2 <= 2.21\ngini = 0.24\nsamples = 35\nvalue = [48, 8]\nclass = Benign", fillcolor="#e9965a"] ;
1 -> 2 ;
3 [label="PC2 <= -1.91\ngini = 0.17\nsamples = 33\nvalue = [47, 5]\nclass = Benign", fillcolor="#e88e4e"] ;
2 -> 3 ;
4 [label="gini = 0.49\nsamples = 6\nvalue = [3, 4]\nclass = Malignant", fillcolor="#cee6f8"] ;
3 -> 4 ;
5 [label="gini = 0.04\nsamples = 27\nvalue = [44, 1]\nclass = Benign", fillcolor="#e6843d"] ;
3 -> 5 ;
6 [label="PC5 <= -0.52\ngini = 0.38\nsamples = 2\nvalue = [1, 3]\nclass = Malignant", fillcolor="#7bbeee"] ;
2 -> 6 ;
7 [label="gini = 0.0\nsamples = 1\nvalue = [0, 3]\nclass = Malignant", fillcolor="#399de5"] ;
6 -> 7 ;
8 [label="gini = 0.0\nsamples = 1\nvalue = [1, 0]\nclass = Benign", fillcolor="#e58139"] ;
6 -> 8 ;
9 [label="PC6 <= 3.01\ngini = 0.02\nsamples = 143\nvalue = [220, 2]\nclass = Benign", fillcolor="#e5823b"] ;
1 -> 9 ;
10 [label="PC10 <= 0.35\ngini = 0.01\nsamples = 142\nvalue = [220, 1]\nclass = Benign", fillcolor="#e5823a"] ;
9 -> 10 ;
11 [label="gini = 0.0\nsamples = 102\nvalue = [157, 0]\nclass = Benign", fillcolor="#e58139"] ;
10 -> 11 ;
12 [label="gini = 0.03\nsamples = 40\nvalue = [63, 1]\nclass = Benign", fillcolor="#e5833c"] ;
10 -> 12 ;
13 [label="gini = 0.0\nsamples = 1\nvalue = [0, 1]\nclass = Malignant", fillcolor="#399de5"] ;
9 -> 13 ;
14 [label="PC2 <= 6.82\ngini = 0.18\nsamples = 117\nvalue = [18, 159]\nclass = Malignant", fillcolor="#4fa8e8"] ;
0 -> 14 [labeldistance=2.5, labelangle=-45, headlabel="False"] ;
15 [label="PC6 <= -2.42\ngini = 0.12\nsamples = 113\nvalue = [11, 158]\nclass = Malignant", fillcolor="#47a4e7"] ;
14 -> 15 ;
16 [label="gini = 0.0\nsamples = 1\nvalue = [2, 0]\nclass = Benign", fillcolor="#e58139"] ;
15 -> 16 ;
17 [label="PC5 <= 1.99\ngini = 0.1\nsamples = 112\nvalue = [9, 158]\nclass = Malignant", fillcolor="#44a3e6"] ;
15 -> 17 ;
18 [label="gini = 0.07\nsamples = 109\nvalue = [6, 158]\nclass = Malignant", fillcolor="#41a1e6"] ;
17 -> 18 ;
19 [label="gini = 0.0\nsamples = 3\nvalue = [3, 0]\nclass = Benign", fillcolor="#e58139"] ;
17 -> 19 ;
20 [label="PC1 <= 6.74\ngini = 0.22\nsamples = 4\nvalue = [7, 1]\nclass = Benign", fillcolor="#e99355"] ;
14 -> 20 ;
21 [label="gini = 0.0\nsamples = 3\nvalue = [7, 0]\nclass = Benign", fillcolor="#e58139"] ;
20 -> 21 ;
22 [label="gini = 0.0\nsamples = 1\nvalue = [0, 1]\nclass = Malignant", fillcolor="#399de5"] ;
20 -> 22 ;
}